net 
{
    node_size = (100 40);
}

node C5
{
    label = "Slope";
    position = (738 447);
    states = ("no"  "downhill"  "uphill");
    HR_LinkMode_C7 = "0";
    HR_State_2 = "";
    HR_Group = "0";
    HR_Desc = "";
    HR_State_1 = "";
    HR_State_0 = "";
}

node C2
{
    label = "Wind";
    position = (474 448);
    states = ("no"  "behind"  "against");
    HR_LinkMode_C6 = "0";
    HR_State_2 = "";
    HR_LinkMode_C3 = "0";
    HR_Group = "0";
    HR_Desc = "";
    HR_State_1 = "";
    HR_State_0 = "";
}

node C1
{
    label = "Club";
    position = (179 451);
    states = ("x3_wood"  "driver");
    HR_LinkMode_C4 = "0";
    HR_LinkMode_C3 = "0";
    HR_Group = "0";
    HR_Desc = "";
    HR_State_1 = "";
    HR_State_0 = "";
}

node C3
{
    label = "Result";
    position = (333 349);
    states = ("ok"  "miss");
    HR_LinkMode_C4 = "0";
    HR_Group = "0";
    HR_Desc = "";
    HR_State_1 = "";
    HR_State_0 = "";
}

node C4
{
    label = "C-Distance";
    position = (268 201);
    states = ("x0"  "x180"  "x200"  "x220"  "x240");
    HR_State_4 = "";
    HR_State_3 = "";
    HR_State_2 = "";
    HR_LinkMode_C6 = "0";
    HR_Group = "0";
    HR_Desc = "";
    HR_State_1 = "";
    HR_State_0 = "";
}

node C6
{
    label = "W-distance";
    position = (472 202);
    states = ("x0"  "x160"  "x180"  "x200"  "x220"  "x240"  "x265");
    HR_State_6 = "";
    HR_State_5 = "";
    HR_State_4 = "";
    HR_State_3 = "";
    HR_State_2 = "";
    HR_LinkMode_C7 = "0";
    HR_Group = "0";
    HR_Desc = "";
    HR_State_1 = "";
    HR_State_0 = "";
}

node C7
{
    label = "Distance";
    position = (469 -20);
    states = ("x0"  "x145"  "x160"  "x180"  "x200"  "x220"  "x240" 
     "x265"  "x290");
    HR_State_8 = "";
    HR_State_7 = "";
    HR_State_6 = "";
    HR_State_5 = "";
    HR_State_4 = "";
    HR_State_3 = "";
    HR_State_2 = "";
    HR_Group = "0";
    HR_Desc = "";
    HR_State_1 = "";
    HR_State_0 = "";
}

potential (C5 |)
{
    data = (0.33333333 0.33333333 0.33333333);
}

potential (C2 |)
{
    data = (0.33333333 0.33333333 0.33333333);
}

potential (C1 |)
{
    data = (0.50000000 0.50000000);
}

potential (C3 | C2 C1)
{
    data = (((0.98000000 0.02000000)
        (0.94000000 0.06000000))
        ((0.96000000 0.04000000)
        (0.88000000 0.12000000))
        ((0.96000000 0.04000000)
        (0.88000000 0.12000000)));
}

potential (C4 | C3 C1)
{
    data = (((0.00000000 0.25000000 0.50000000 0.25000000 0.00000000)
        (0.00000000 0.00000000 0.25000000 0.50000000 0.25000000))
        ((1.00000000 0.00000000 0.00000000 0.00000000 0.00000000)
        (1.00000000 0.00000000 0.00000000 0.00000000 0.00000000)));
}

potential (C6 | C2 C4)
{
    data = (((1.00000000 0.00000000 0.00000000 0.00000000 0.00000000 
        0.00000000 0.00000000)
        (0.00000000 0.00000000 1.00000000 0.00000000 0.00000000 
        0.00000000 0.00000000)
        (0.00000000 0.00000000 0.00000000 1.00000000 0.00000000 
        0.00000000 0.00000000)
        (0.00000000 0.00000000 0.00000000 0.00000000 1.00000000 
        0.00000000 0.00000000)
        (0.00000000 0.00000000 0.00000000 0.00000000 0.00000000 
        1.00000000 0.00000000))
        ((1.00000000 0.00000000 0.00000000 0.00000000 0.00000000 
        0.00000000 0.00000000)
        (0.00000000 0.00000000 0.00000000 1.00000000 0.00000000 
        0.00000000 0.00000000)
        (0.00000000 0.00000000 0.00000000 0.00000000 1.00000000 
        0.00000000 0.00000000)
        (0.00000000 0.00000000 0.00000000 0.00000000 0.00000000 
        1.00000000 0.00000000)
        (0.00000000 0.00000000 0.00000000 0.00000000 0.00000000 
        0.00000000 1.00000000))
        ((1.00000000 0.00000000 0.00000000 0.00000000 0.00000000 
        0.00000000 0.00000000)
        (0.00000000 1.00000000 0.00000000 0.00000000 0.00000000 
        0.00000000 0.00000000)
        (0.00000000 0.00000000 1.00000000 0.00000000 0.00000000 
        0.00000000 0.00000000)
        (0.00000000 0.00000000 0.00000000 1.00000000 0.00000000 
        0.00000000 0.00000000)
        (0.00000000 0.00000000 0.00000000 0.00000000 1.00000000 
        0.00000000 0.00000000)));
}

potential (C7 | C5 C6)
{
    data = (((1.00000000 0.00000000 0.00000000 0.00000000 0.00000000 
        0.00000000 0.00000000 0.00000000 0.00000000)
        (0.00000000 0.00000000 1.00000000 0.00000000 0.00000000 
        0.00000000 0.00000000 0.00000000 0.00000000)
        (0.00000000 0.00000000 0.00000000 1.00000000 0.00000000 
        0.00000000 0.00000000 0.00000000 0.00000000)
        (0.00000000 0.00000000 0.00000000 0.00000000 1.00000000 
        0.00000000 0.00000000 0.00000000 0.00000000)
        (0.00000000 0.00000000 0.00000000 0.00000000 0.00000000 
        1.00000000 0.00000000 0.00000000 0.00000000)
        (0.00000000 0.00000000 0.00000000 0.00000000 0.00000000 
        0.00000000 1.00000000 0.00000000 0.00000000)
        (0.00000000 0.00000000 0.00000000 0.00000000 0.00000000 
        0.00000000 0.00000000 1.00000000 0.00000000))
        ((1.00000000 0.00000000 0.00000000 0.00000000 0.00000000 
        0.00000000 0.00000000 0.00000000 0.00000000)
        (0.00000000 0.00000000 0.00000000 1.00000000 0.00000000 
        0.00000000 0.00000000 0.00000000 0.00000000)
        (0.00000000 0.00000000 0.00000000 0.00000000 1.00000000 
        0.00000000 0.00000000 0.00000000 0.00000000)
        (0.00000000 0.00000000 0.00000000 0.00000000 0.00000000 
        1.00000000 0.00000000 0.00000000 0.00000000)
        (0.00000000 0.00000000 0.00000000 0.00000000 0.00000000 
        0.00000000 1.00000000 0.00000000 0.00000000)
        (0.00000000 0.00000000 0.00000000 0.00000000 0.00000000 
        0.00000000 0.00000000 1.00000000 0.00000000)
        (0.00000000 0.00000000 0.00000000 0.00000000 0.00000000 
        0.00000000 0.00000000 0.00000000 1.00000000))
        ((1.00000000 0.00000000 0.00000000 0.00000000 0.00000000 
        0.00000000 0.00000000 0.00000000 0.00000000)
        (0.00000000 1.00000000 0.00000000 0.00000000 0.00000000 
        0.00000000 0.00000000 0.00000000 0.00000000)
        (0.00000000 0.00000000 1.00000000 0.00000000 0.00000000 
        0.00000000 0.00000000 0.00000000 0.00000000)
        (0.00000000 0.00000000 0.00000000 1.00000000 0.00000000 
        0.00000000 0.00000000 0.00000000 0.00000000)
        (0.00000000 0.00000000 0.00000000 0.00000000 1.00000000 
        0.00000000 0.00000000 0.00000000 0.00000000)
        (0.00000000 0.00000000 0.00000000 0.00000000 0.00000000 
        1.00000000 0.00000000 0.00000000 0.00000000)
        (0.00000000 0.00000000 0.00000000 0.00000000 0.00000000 
        0.00000000 1.00000000 0.00000000 0.00000000)));
}
